{
  "ip": 0,
  "fr": 60,
  "v": "5.1.20",
  "assets": [],
  "layers": [
    {
      "ty": 4,
      "nm": "19",
      "ip": 0,
      "st": 0,
      "ind": 10,
      "hix": 1,
      "ks": {
        "o": {
          "a": 1,
          "k": [
            {
              "t": 0,
              "s": [0],
              "e": [0],
              "i": { "x": [1], "y": [1] },
              "o": { "x": [0], "y": [0] }
            },
            {
              "t": 45,
              "s": [0],
              "e": [100],
              "i": { "x": [1], "y": [1] },
              "o": { "x": [0], "y": [0] }
            },
            {
              "t": 46,
              "s": [100],
              "e": [100],
              "i": { "x": [1], "y": [1] },
              "o": { "x": [0], "y": [0] }
            },
            { "t": 50 }
          ]
        },
        "or": { "a": 0, "k": [0, 0, 0] },
        "a": { "a": 0, "k": [72.5, 72.5, 0] },
        "p": {
          "s": true,
          "x": { "a": 0, "k": 72.5 },
          "y": { "a": 0, "k": 72.5 }
        },
        "rx": { "a": 0, "k": 0 },
        "ry": { "a": 0, "k": 0 },
        "rz": { "a": 0, "k": 0 },
        "s": { "a": 0, "k": [100, 100, 100] }
      },
      "shapes": [
        {
          "ty": "gr",
          "nm": "19 shape group",
          "it": [
            {
              "ty": "sh",
              "ks": {
                "a": 0,
                "k": {
                  "c": true,
                  "v": [
                    [31.9778, 2.32857],
                    [29.6976, 2.31649],
                    [27.756, 3.76649],
                    [26.189, 8.16976],
                    [25.9744, 11.4356],
                    [26.4816, 15.8543],
                    [26.9844, 16.962],
                    [27.4741, 17.2453],
                    [27.9796, 17.0068],
                    [32.6652, 43.0801],
                    [40.3873, 58.0441],
                    [46.3259, 66.1357],
                    [68.7331, 86.2863],
                    [72.4727, 87.306],
                    [43.0381, 58.4747],
                    [42.442, 57.5989],
                    [33.9717, 39.8331],
                    [30.1416, 19.4828],
                    [30.4759, 17.634],
                    [31.0589, 17.6853],
                    [31.9863, 17.2824],
                    [33.9954, 15.5038],
                    [36.0786, 13.809],
                    [37.1927, 12.9422],
                    [37.3598, 12.0178],
                    [36.8954, 10.2788],
                    [35.8357, 9.99253],
                    [33.7232, 10.6084],
                    [34.3273, 6.66928],
                    [34.2754, 5.69986],
                    [33.7885, 4.07035]
                  ],
                  "i": [
                    [0.773100000000003, 0.31106999999999996],
                    [0.7964999999999982, -0.24719999999999986],
                    [0.5151000000000003, -0.6550600000000002],
                    [0.2762999999999991, -1.93682],
                    [0.005400000000001626, -1.0739],
                    [-0.30560000000000187, -1.4451],
                    [-0.26200000000000045, -0.20599999999999952],
                    [-0.17830000000000013, -0.021399999999999864],
                    [-0.1352000000000011, 0.1396000000000015],
                    [-3.4557, -8.806400000000004],
                    [-3.1385000000000005, -4.838999999999999],
                    [-2.159099999999995, -2.6510000000000034],
                    [-8.354199999999992, -5.186700000000002],
                    [-0.9810999999999979, 0.33100000000000307],
                    [7.203299999999999, 11.083200000000005],
                    [0.20929999999999893, 0.2984000000000009],
                    [2.053600000000003, 6.2149],
                    [0.23000000000000043, 6.804199999999998],
                    [-0.19739999999999824, 0.2942],
                    [-0.2427000000000028, -0.00420000000000087],
                    [-0.3111999999999995, 0.25560000000000116],
                    [-0.8670999999999935, 0.8870999999999984],
                    [-0.528100000000002, 0.34800000000000075],
                    [-0.17379999999999995, 0.2535000000000007],
                    [-0.0020000000000024443, 0.38010000000000055],
                    [0.2792999999999992, 0.2704000000000004],
                    [0.4444999999999979, -0.01518000000000086],
                    [0.8501000000000047, -0.4339999999999993],
                    [-0.016899999999999693, 0.9705200000000005],
                    [0.04370000000000118, 0.30961000000000016],
                    [0.24670000000000414, 0.5093199999999998]
                  ],
                  "o": [
                    [-0.7235999999999976, -0.2552599999999998],
                    [-0.7793000000000028, 0.31160999999999994],
                    [-0.7683, 0.9986899999999999],
                    [-0.13769999999999882, 1.1033299999999997],
                    [0.03260000000000218, 1.5008],
                    [0.07319999999999993, 0.5325000000000006],
                    [0.14819999999999922, 0.16750000000000043],
                    [0.20179999999999865, -0.019400000000000972],
                    [-0.33190000000000097, 8.575800000000001],
                    [2.009599999999999, 5.1370000000000005],
                    [1.7999999999999972, 2.743400000000001],
                    [6.5839, 8.247],
                    [1.5119000000000113, 1.0108000000000033],
                    [-12.419800000000002, -8.137699999999995],
                    [-0.1880999999999986, -0.285499999999999],
                    [-3.5932999999999993, -5.628999999999998],
                    [-2.3233999999999995, -6.762700000000002],
                    [0.0254000000000012, -0.9383000000000017],
                    [0.1460000000000008, 0.030000000000001137],
                    [0.3069999999999986, -0.013000000000001677],
                    [0.47229999999999706, -0.2987000000000002],
                    [0.8607000000000014, -0.7818000000000005],
                    [0.5688999999999993, -0.3243999999999989],
                    [0.10940000000000083, -0.2362000000000002],
                    [-0.030299999999996885, -0.8888999999999996],
                    [-0.26200000000000045, -0.20599999999999952],
                    [-0.5581999999999994, -0.023419999999999774],
                    [0.38589999999999947, -1.6555499999999999],
                    [0.009099999999996555, -0.3366699999999998],
                    [-0.07789999999999964, -0.5770200000000001],
                    [-0.4339999999999975, -0.8501200000000004]
                  ]
                }
              }
            },
            {
              "ty": "sh",
              "ks": {
                "a": 0,
                "k": {
                  "c": true,
                  "v": [
                    [29.0578, 5.54065],
                    [29.7983, 4.82539],
                    [29.6921, 5.00901],
                    [29.2705, 5.94961],
                    [28.0645, 10.9293],
                    [27.7269, 12.5719],
                    [27.7549, 9.76991],
                    [28.2725, 7.25113]
                  ],
                  "i": [
                    [-0.3326999999999991, 0.43384],
                    [-0.26399999999999935, 0.17401],
                    [0.04720000000000013, -0.0816100000000004],
                    [0.15440000000000254, -0.4552499999999995],
                    [0, 0],
                    [0.07280000000000086, -0.5023999999999997],
                    [-0.07130000000000081, 0.9343900000000005],
                    [-0.22409999999999997, 0.8409499999999994]
                  ],
                  "o": [
                    [0.22960000000000136, -0.30283000000000015],
                    [-0.02360000000000184, 0.04081000000000046],
                    [-0.12659999999999982, 0.1718200000000003],
                    [0, 0],
                    [-0.15230000000000032, 0.5926000000000009],
                    [-0.052600000000001756, -0.9336000000000002],
                    [0.12100000000000222, -0.8382299999999994],
                    [0.19089999999999918, -0.70648]
                  ]
                }
              }
            },
            {
              "ty": "sh",
              "ks": {
                "a": 0,
                "k": {
                  "c": true,
                  "v": [
                    [30.4134, 4.60939],
                    [30.5583, 4.57069],
                    [31.4956, 4.78615],
                    [31.6792, 4.89237],
                    [31.0737, 4.95055],
                    [30.813, 5.33069],
                    [29.0144, 10.4168],
                    [29.397, 8.55513],
                    [30.4617, 4.59649]
                  ],
                  "i": [
                    [0, 0],
                    [-0.0730000000000004, -0.01499999999999968],
                    [-0.22119999999999962, -0.1824300000000001],
                    [-0.08410000000000295, -0.04868000000000006],
                    [0.19480000000000075, -0.15294000000000008],
                    [0.045000000000001705, -0.21903000000000006],
                    [0, 0],
                    [-0.13009999999999877, 0.5777199999999993],
                    [-0.3490000000000002, 0.9210899999999995]
                  ],
                  "o": [
                    [0.02360000000000184, -0.04081000000000046],
                    [0.40360000000000085, -0.03878999999999966],
                    [0.03829999999999956, 0.02212999999999976],
                    [-0.20889999999999986, -0.11414999999999953],
                    [-0.12879999999999825, 0.03440000000000065],
                    [0, 0],
                    [0.125, -0.6633800000000001],
                    [0.3608000000000011, -1.7180100000000005],
                    [0, 0]
                  ]
                }
              }
            },
            {
              "ty": "sh",
              "ks": {
                "a": 0,
                "k": {
                  "c": true,
                  "v": [
                    [33.8881, 12.5827],
                    [33.6757, 12.9499],
                    [33.2121, 13.5395],
                    [33.1767, 13.6007],
                    [33.2217, 13.3816],
                    [33.2442, 13.2721]
                  ],
                  "i": [
                    [-0.2640000000000029, 0.1739999999999995],
                    [0, 0],
                    [0.23179999999999978, -0.1654],
                    [0, 0],
                    [-0.04719999999999658, 0.08169999999999966],
                    [-0.02360000000000184, 0.040800000000000836]
                  ],
                  "o": [
                    [0, 0],
                    [-0.07730000000000103, 0.2276000000000007],
                    [0, 0],
                    [-0.01719999999999544, -0.06439999999999912],
                    [-0.008600000000001273, -0.03220000000000134],
                    [0.16519999999999868, -0.2856000000000005]
                  ]
                }
              }
            },
            {
              "ty": "sh",
              "ks": {
                "a": 0,
                "k": {
                  "c": true,
                  "v": [
                    [32.9645, 14.7441],
                    [33.3735, 14.5314],
                    [33.8661, 14.2446],
                    [32.7425, 15.2692]
                  ],
                  "i": [
                    [-0.06220000000000425, 0.1546000000000003],
                    [-0.1933000000000007, 0.051600000000000534],
                    [-0.17600000000000193, 0.11599999999999966],
                    [0, 0]
                  ],
                  "o": [
                    [0.07939999999999969, -0.09019999999999939],
                    [0.1524000000000001, -0.07519999999999882],
                    [0, 0],
                    [0.08579999999999899, -0.19549999999999912]
                  ]
                }
              }
            },
            {
              "ty": "sh",
              "ks": {
                "a": 0,
                "k": {
                  "c": true,
                  "v": [
                    [30.3299, 14.5679],
                    [30.0305, 14.8031],
                    [30.2975, 14.059],
                    [30.5423, 14.2006]
                  ],
                  "i": [
                    [0.07080000000000197, -0.12240000000000073],
                    [0.14379999999999882, -0.10740000000000016],
                    [-0.10299999999999798, 0.13100000000000023],
                    [-0.10519999999999996, -0.006399999999999295]
                  ],
                  "o": [
                    [-0.05579999999999785, 0.04940000000000033],
                    [0.07499999999999929, -0.3650000000000002],
                    [0.05799999999999983, 0.08800000000000097],
                    [-0.07080000000000197, 0.1225000000000005]
                  ]
                }
              }
            },
            {
              "ty": "st",
              "o": { "a": 0, "k": 0 },
              "w": { "a": 0, "k": 0 },
              "c": { "a": 0, "k": [0, 0, 0, 0] },
              "lc": 3,
              "lj": 1,
              "ml": 1
            },
            {
              "ty": "fl",
              "o": { "a": 0, "k": 100 },
              "r": 1,
              "c": { "a": 0, "k": [0, 0, 0, 1] }
            },
            {
              "ty": "tr",
              "o": { "a": 0, "k": 100 },
              "a": { "a": 0, "k": [0, 0] },
              "s": { "a": 0, "k": [100, 100] },
              "p": { "a": 0, "k": [0, 0] },
              "r": { "a": 0, "k": 0 }
            }
          ]
        },
        {
          "ty": "gr",
          "nm": "19 shape group",
          "it": [
            {
              "ty": "sh",
              "ks": {
                "a": 0,
                "k": {
                  "c": true,
                  "v": [
                    [80.8189, 44.9184],
                    [70.4989, 51.8143],
                    [71.0717, 59.5793],
                    [72.1973, 63.9881],
                    [76.5025, 70.808],
                    [77.173, 72.5438],
                    [78.0044, 73.719],
                    [78.7227, 73.8895],
                    [79.225, 73.4448],
                    [78.8058, 72.263],
                    [76.4987, 69.0495],
                    [76.286, 68.6406],
                    [76.1732, 68.4119],
                    [72.4723, 58.429],
                    [75.8173, 45.3742],
                    [83.5199, 50.7695],
                    [87.6547, 58.3077],
                    [89.4305, 61.6631],
                    [90.3813, 63.4793],
                    [91.2156, 64.0845],
                    [92.2523, 62.9279],
                    [86.5643, 53.0616]
                  ],
                  "i": [
                    [0.8354999999999961, 0.6739000000000033],
                    [0.4784999999999968, -6.993400000000001],
                    [-0.5078000000000031, -2.9350000000000023],
                    [-0.3674999999999926, -0.7299000000000007],
                    [-2.2749000000000024, -3.311800000000005],
                    [0, 0],
                    [-0.3264000000000067, -0.18880000000000052],
                    [-0.2663000000000011, 0.03660000000000707],
                    [-0.06869999999999266, 0.2599000000000018],
                    [0.39529999999999177, 0.44650000000000034],
                    [0, 0],
                    [0.06759999999999877, 0.11549999999999727],
                    [0.03720000000001278, 0.07689999999999486],
                    [0.8149999999999977, 3.439399999999999],
                    [-3.907200000000003, 1.9058999999999955],
                    [-3.0892000000000053, -4.591700000000003],
                    [-1.1990000000000123, -2.6813000000000002],
                    [-0.24920000000000186, -0.4164999999999992],
                    [-0.22569999999998913, -0.4573000000000036],
                    [-0.1665999999999883, -0.01839999999999975],
                    [0.059599999999988995, 0.14000000000000057],
                    [2.6983000000000033, 4.420000000000002]
                  ],
                  "o": [
                    [-6.401499999999999, -2.396099999999997],
                    [-0.12590000000000146, 2.2416999999999945],
                    [0.38289999999999225, 2.209299999999999],
                    [0.5952000000000055, 1.2347999999999928],
                    [0, 0],
                    [0.227800000000002, 0.5945999999999998],
                    [0.2125999999999948, 0.15030000000000143],
                    [0.26619999999999777, -0.03659999999999286],
                    [0.11580000000000723, -0.34140000000000725],
                    [0, 0],
                    [-0.0742000000000047, -0.1570999999999998],
                    [-0.0379999999999967, -0.07560000000000855],
                    [-1.6522999999999968, -3.2158000000000015],
                    [-1.6771999999999991, -6.7973],
                    [2.045900000000003, -0.994800000000005],
                    [1.5574999999999903, 2.3440999999999974],
                    [0.9346999999999923, 1.8205000000000027],
                    [0.4082000000000079, 0.7535000000000025],
                    [0.3896000000000015, 0.38510000000000133],
                    [0.7507999999999981, -0.6311000000000035],
                    [-1.0936000000000092, -2.157499999999999],
                    [-2.994799999999998, -4.754899999999999]
                  ]
                }
              }
            },
            {
              "ty": "sh",
              "ks": {
                "a": 0,
                "k": {
                  "c": true,
                  "v": [
                    [82.0336, 55.6687],
                    [81.6406, 55.3597],
                    [81.0705, 55.3566],
                    [80.1593, 56.014],
                    [77.2966, 57.503],
                    [77.242, 57.8798],
                    [77.4901, 58.2276],
                    [78.3758, 58.2498],
                    [80.0857, 57.4827],
                    [80.7491, 57.2538],
                    [81.1326, 57.7206],
                    [82.6344, 60.6316],
                    [83.3436, 62.5123],
                    [82.6325, 64.3065],
                    [80.568, 64.1333],
                    [79.2437, 62.4686],
                    [78.5251, 61.522],
                    [77.43, 61.2969],
                    [77.0855, 61.7512],
                    [77.1791, 62.2954],
                    [77.6559, 62.5304],
                    [78.4518, 63.7669],
                    [81.5316, 65.9977],
                    [83.4156, 65.4946],
                    [84.6293, 64.032],
                    [84.5447, 61.7775],
                    [82.6978, 57.7684],
                    [82.0693, 56.3837]
                  ],
                  "i": [
                    [0.008599999999987062, 0.03219999999999601],
                    [0.18679999999999097, 0.05360000000000298],
                    [0.1525000000000034, -0.07520000000000238],
                    [0.3820999999999941, -0.3780000000000001],
                    [1.159400000000005, -0.3096000000000032],
                    [-0.07520000000000948, -0.1524000000000001],
                    [-0.12239999999999895, -0.07090000000000174],
                    [-0.35419999999999163, 0.0945999999999998],
                    [-0.5366000000000071, 0.31579999999999586],
                    [-0.19539999999999225, -0.0858999999999952],
                    [-0.06879999999999598, -0.2575999999999965],
                    [0, 0],
                    [-0.055899999999994066, -0.46810000000000684],
                    [0.5603000000000122, -0.35669999999999646],
                    [0.7515999999999963, 0.48930000000000007],
                    [0.4983999999999895, 0.8328999999999951],
                    [0.212600000000009, 0.1501999999999981],
                    [0.4013999999999953, -0.17620000000000147],
                    [0.045000000000001705, -0.2190999999999974],
                    [-0.1396000000000015, -0.13519999999999754],
                    [-0.22769999999999868, -0.07719999999999771],
                    [-0.35880000000000223, -0.6976999999999975],
                    [-1.303299999999993, -0.10039999999999338],
                    [-0.5925000000000011, 0.36529999999999063],
                    [-0.216700000000003, 0.6099000000000103],
                    [0.24079999999999302, 0.9017999999999944],
                    [0.910899999999998, 1.3438000000000017],
                    [0.03879999999999484, 0.4036000000000044]
                  ],
                  "o": [
                    [-0.07520000000000948, -0.1524000000000001],
                    [-0.22760000000000957, -0.07729999999999393],
                    [-0.22539999999999338, 0.06020000000000181],
                    [-0.7490999999999985, 0.6829999999999998],
                    [-0.1115999999999957, 0.09879999999999711],
                    [0.042999999999992156, 0.16099999999999426],
                    [0.23619999999999663, 0.10940000000000083],
                    [0.6033000000000044, -0.19559999999999889],
                    [0.24689999999999657, -0.23850000000000193],
                    [0.1869000000000085, 0.05360000000000298],
                    [0, 0],
                    [0.41689999999999827, 0.7856999999999985],
                    [0.08620000000000516, 0.8394999999999939],
                    [-0.62469999999999, 0.3738000000000028],
                    [-0.38450000000000273, -0.2769000000000048],
                    [-0.26650000000000773, -0.4808000000000021],
                    [-0.32859999999999445, -0.32629999999999626],
                    [-0.1846000000000032, 0.08379999999999654],
                    [-0.07719999999999061, 0.22760000000000247],
                    [0.09019999999999584, 0.07939999999999969],
                    [0.1717999999999904, 0.12659999999999627],
                    [0.7498999999999967, 1.3866999999999976],
                    [0.6634999999999991, 0.029900000000012028],
                    [0.5923999999999978, -0.3652000000000015],
                    [0.18439999999999657, -0.6012999999999948],
                    [-0.32040000000000646, -1.3289000000000044],
                    [-0.3802000000000021, -0.5195000000000007],
                    [-0.015199999999992997, -0.4444999999999979]
                  ]
                }
              }
            },
            {
              "ty": "sh",
              "ks": {
                "a": 0,
                "k": {
                  "c": true,
                  "v": [
                    [74.2986, 49.7646],
                    [73.1942, 50.4736],
                    [75.256, 51.993],
                    [75.6679, 51.2102],
                    [75.7388, 51.0878],
                    [75.4132, 50.4502]
                  ],
                  "i": [
                    [0.5089000000000112, -0.03240000000000265],
                    [0.3498000000000019, -0.36949999999999505],
                    [-1.1167999999999978, -0.5643000000000029],
                    [-0.06860000000000355, 0.2599000000000018],
                    [-0.055899999999994066, 0.049399999999998556],
                    [0, 0]
                  ],
                  "o": [
                    [-0.38639999999999475, 0.10320000000000107],
                    [0.25780000000000314, 0.448599999999999],
                    [0.20600000000000307, -0.26200000000000045],
                    [-0.008600000000001273, -0.032200000000003115],
                    [0, 0],
                    [-0.2342000000000013, -0.4894000000000034]
                  ]
                }
              }
            },
            {
              "ty": "sh",
              "ks": {
                "a": 0,
                "k": {
                  "c": true,
                  "v": [
                    [79.9667, 48.5098],
                    [78.2855, 48.8035],
                    [78.2219, 50.8905],
                    [78.6695, 50.8227]
                  ],
                  "i": [
                    [-0.5471000000000004, 1.1811000000000007],
                    [0.24450000000000216, -0.8932999999999964],
                    [0.05100000000000193, -1.3592000000000013],
                    [0, 0]
                  ],
                  "o": [
                    [-0.8763000000000005, -0.697499999999998],
                    [0.008600000000001273, 0.032200000000003115],
                    [0, 0],
                    [0.3177000000000021, -0.36079999999999757]
                  ]
                }
              }
            },
            {
              "ty": "st",
              "o": { "a": 0, "k": 0 },
              "w": { "a": 0, "k": 0 },
              "c": { "a": 0, "k": [0, 0, 0, 0] },
              "lc": 3,
              "lj": 1,
              "ml": 1
            },
            {
              "ty": "fl",
              "o": { "a": 0, "k": 100 },
              "r": 1,
              "c": { "a": 0, "k": [0, 0, 0, 1] }
            },
            {
              "ty": "tr",
              "o": { "a": 0, "k": 100 },
              "a": { "a": 0, "k": [0, 0] },
              "s": { "a": 0, "k": [100, 100] },
              "p": { "a": 0, "k": [0, 0] },
              "r": { "a": 0, "k": 0 }
            }
          ]
        },
        {
          "ty": "gr",
          "nm": "19 shape group",
          "it": [
            {
              "ty": "sh",
              "ks": {
                "a": 0,
                "k": {
                  "c": true,
                  "v": [
                    [118.719, 78.1523],
                    [116.581, 76.3249],
                    [112.287, 74.8783],
                    [106.556, 75.5873],
                    [105.198, 71.9774],
                    [98.3729, 69.7546],
                    [93.9194, 78.0205],
                    [91.9199, 77.781],
                    [82.7295, 80.0465],
                    [84.7151, 89.1984],
                    [87.5879, 92.161],
                    [84.3942, 96.7136],
                    [84.0238, 104.329],
                    [86.7367, 105.344],
                    [92.0219, 105.287],
                    [96.7131, 104.363],
                    [97.2563, 105.08],
                    [99.7997, 108.104],
                    [105.778, 110.781],
                    [109.956, 101.408],
                    [121.146, 99.3815],
                    [119.858, 93.713],
                    [116.059, 89.4463],
                    [118.555, 85.0472],
                    [119.412, 80.8863]
                  ],
                  "i": [
                    [0.4830000000000041, 0.6368999999999971],
                    [0.9419999999999931, 0.5812999999999988],
                    [1.546999999999997, 0.16519999999999868],
                    [1.9480000000000075, -0.6828000000000003],
                    [0.3020000000000067, 0.39809999999999945],
                    [2.1761000000000053, -1.649799999999999],
                    [1.0910999999999973, -4.128799999999998],
                    [0.6595999999999975, 0.043199999999998795],
                    [1.5486999999999966, -1.9262999999999977],
                    [-3.0180000000000007, -3.9810000000000088],
                    [-1.2109999999999985, -1.046199999999999],
                    [0.7258999999999958, -1.3025999999999982],
                    [-1.4887999999999977, -1.9639999999999986],
                    [-1.446399999999997, -0.19899999999999807],
                    [-1.983699999999999, 0.25],
                    [-1.5097999999999985, 0.4339999999999975],
                    [-0.22129999999999939, -0.2920000000000016],
                    [-0.8303999999999974, -0.875],
                    [-1.3530000000000086, 1.0259999999999962],
                    [-0.4759999999999991, 4.498000000000005],
                    [-2.4150000000000063, 1.8305000000000007],
                    [2.1329999999999956, 2.813200000000009],
                    [1.3859999999999957, 1.331700000000012],
                    [-0.612000000000009, 1.508499999999998],
                    [0.013999999999995794, 1.285499999999999]
                  ],
                  "o": [
                    [-0.4829999999999899, -0.6370000000000005],
                    [-1.3160000000000025, -0.799199999999999],
                    [-1.8719999999999999, -0.21009999999999707],
                    [-0.6029999999999944, -2.008499999999998],
                    [-2.3739999999999952, -3.1317000000000093],
                    [-1.8778999999999968, 1.3817999999999984],
                    [-0.6732999999999976, -0.11650000000000205],
                    [-4.578199999999995, -0.416000000000011],
                    [-1.6942999999999984, 2.1203000000000003],
                    [0.7042000000000002, 0.9288999999999987],
                    [-1.4031999999999982, 1.7323999999999984],
                    [-1.7357999999999976, 3.1128999999999962],
                    [0.3622000000000014, 0.47800000000000864],
                    [1.5397999999999996, 0.2120000000000033],
                    [1.6176999999999992, -0.18200000000000216],
                    [0.1407999999999987, 0.18600000000000705],
                    [0.8652000000000015, 1.1410000000000053],
                    [2.6323000000000008, 2.811000000000007],
                    [2.3089999999999975, -1.75],
                    [5.045000000000002, 0.480000000000004],
                    [1.274000000000001, -0.9658000000000015],
                    [-1.1470000000000056, -1.5127999999999986],
                    [1.0520000000000067, -1.424199999999999],
                    [0.5849999999999937, -1.4883999999999986],
                    [0.021000000000000796, -1.1857000000000113]
                  ]
                }
              }
            },
            {
              "ty": "sh",
              "ks": {
                "a": 0,
                "k": {
                  "c": true,
                  "v": [
                    [117.603, 78.7475],
                    [118.115, 81.2427],
                    [116.839, 85.5956],
                    [115.146, 88.5718],
                    [108.486, 83.5904],
                    [107.126, 77.6626],
                    [106.892, 76.7745],
                    [111.525, 76.271],
                    [115.648, 77.4088]
                  ],
                  "i": [
                    [-0.3219999999999885, -0.4245999999999981],
                    [0.06100000000000705, -1.1326999999999998],
                    [0.7639999999999958, -1.5825999999999993],
                    [0.6610000000000014, -1.002600000000001],
                    [2.432000000000002, 1.4994999999999976],
                    [0.5099999999999909, 1.995599999999996],
                    [0.05500000000000682, 0.2927999999999997],
                    [-1.5730000000000075, -0.14509999999999934],
                    [-1.2890000000000015, -0.6527999999999992]
                  ],
                  "o": [
                    [0.402000000000001, 0.5307999999999993],
                    [-0.08599999999999852, 1.3192999999999984],
                    [-0.4680000000000035, 0.9814999999999969],
                    [-2.0079999999999956, -1.821399999999997],
                    [-0.39700000000000557, -1.9561999999999955],
                    [-0.10099999999999909, -0.29930000000000234],
                    [1.5160000000000053, -0.4806999999999988],
                    [1.4599999999999937, 0.1056999999999988],
                    [0.9810000000000088, 0.4677999999999969]
                  ]
                }
              }
            },
            {
              "ty": "sh",
              "ks": {
                "a": 0,
                "k": {
                  "c": true,
                  "v": [
                    [98.8635, 71.8902],
                    [104.294, 72.8513],
                    [105.389, 76.0329],
                    [99.812, 79.5088],
                    [95.3796, 78.2927]
                  ],
                  "i": [
                    [-1.4121999999999986, 1.279500000000013],
                    [-1.7710000000000008, -2.335499999999996],
                    [-0.4889999999999901, -1.8025999999999982],
                    [1.9240000000000066, -1.5419999999999874],
                    [1.460099999999997, 0.272199999999998]
                  ],
                  "o": [
                    [1.849499999999992, -1.6947999999999865],
                    [0.24099999999999966, 0.3185000000000002],
                    [-1.793999999999997, 0.7753000000000014],
                    [-1.494799999999998, -0.5384999999999991],
                    [0.9104000000000099, -2.9887999999999977]
                  ]
                }
              }
            },
            {
              "ty": "sh",
              "ks": {
                "a": 0,
                "k": {
                  "c": true,
                  "v": [
                    [95.0759, 79.4633],
                    [98.7673, 80.3634],
                    [98.1208, 80.9163],
                    [94.1147, 84.8935],
                    [94.8698, 80.1837]
                  ],
                  "i": [
                    [-0.07880000000000109, 0.22679999999999723],
                    [-1.3274000000000115, -0.372799999999998],
                    [0.21869999999999834, -0.20760000000001355],
                    [1.2192000000000007, -1.258499999999998],
                    [-0.35829999999999984, 1.5671999999999997]
                  ],
                  "o": [
                    [1.133499999999998, 0.2271999999999963],
                    [-0.21229999999999905, 0.16100000000000136],
                    [-1.4515999999999991, 1.3928999999999974],
                    [0.14509999999999934, -1.5726999999999975],
                    [0.05859999999999843, -0.2533999999999992]
                  ]
                }
              }
            },
            {
              "ty": "sh",
              "ks": {
                "a": 0,
                "k": {
                  "c": true,
                  "v": [
                    [98.9549, 81.8512],
                    [100.138, 80.766],
                    [101.509, 81.1686],
                    [107.217, 83.7369],
                    [108.076, 89.4175],
                    [108.558, 95.7596],
                    [105.106, 98.565],
                    [103.842, 99.4608],
                    [103.221, 99.3041],
                    [94.6614, 95.9512],
                    [94.1354, 92.7767],
                    [93.9369, 87.2225]
                  ],
                  "i": [
                    [-1.424199999999999, 1.5392999999999972],
                    [-0.4043000000000063, 0.34839999999999804],
                    [-0.480000000000004, -0.13739999999999952],
                    [-1.9099999999999966, -1.1425000000000125],
                    [-0.21599999999999397, -1.883899999999997],
                    [-0.043000000000006366, -1.9314999999999998],
                    [1.2469999999999999, -0.9455999999999989],
                    [0.4440000000000026, -0.2954000000000008],
                    [0.20699999999999363, 0.052199999999999136],
                    [2.658299999999997, 1.4116999999999962],
                    [0.13230000000000075, 1.111699999999999],
                    [-0.0636999999999972, 1.845399999999998]
                  ],
                  "o": [
                    [0.3843999999999994, -0.375],
                    [0.4339999999999975, 0.13100000000000023],
                    [1.894999999999996, 0.5696999999999974],
                    [0.3569999999999993, 1.9031999999999982],
                    [0.2780000000000058, 2.296599999999998],
                    [-1.054000000000002, 0.9245999999999981],
                    [-0.39799999999999613, 0.30180000000000007],
                    [-0.20699999999999363, -0.052199999999999136],
                    [-3.048000000000002, -0.8235000000000099],
                    [-0.21829999999999927, -1.0046999999999997],
                    [-0.19599999999999795, -1.8573999999999984],
                    [1.921199999999999, -2.041499999999999]
                  ]
                }
              }
            },
            {
              "ty": "sh",
              "ks": {
                "a": 0,
                "k": {
                  "c": true,
                  "v": [
                    [108.721, 84.7282],
                    [111.188, 86.494],
                    [114.531, 89.4142],
                    [110.02, 94.4632],
                    [109.454, 89.2506]
                  ],
                  "i": [
                    [0.2680000000000007, 1.5107],
                    [-0.8160000000000025, -0.6353000000000009],
                    [-1.0720000000000027, -1.0268999999999977],
                    [1.8029999999999973, -1.7012],
                    [0.26900000000000546, 1.8436999999999983]
                  ],
                  "o": [
                    [0.8289999999999935, 0.5420000000000016],
                    [1.1569999999999965, 0.9198999999999984],
                    [-1.2040000000000077, 1.6647999999999996],
                    [-0.10799999999998988, -1.6313999999999993],
                    [-0.22099999999998943, -1.5043000000000006]
                  ]
                }
              }
            },
            {
              "ty": "sh",
              "ks": {
                "a": 0,
                "k": {
                  "c": true,
                  "v": [
                    [105.98, 78.218],
                    [107.002, 82.7089],
                    [106.271, 82.323],
                    [101.073, 79.9319],
                    [105.735, 77.1502]
                  ],
                  "i": [
                    [-0.09499999999999886, -0.3459000000000003],
                    [-0.29399999999999693, -1.4906000000000006],
                    [0.21999999999999886, 0.12540000000001328],
                    [1.7150000000000034, 0.6638999999999982],
                    [-1.5619999999999976, 0.6407999999999987]
                  ],
                  "o": [
                    [0.38700000000000045, 1.5033999999999992],
                    [-0.2669999999999959, -0.13190000000000168],
                    [-1.75, -0.9301999999999992],
                    [1.5460000000000065, -1.2135999999999996],
                    [0.06799999999999784, 0.36599999999999966]
                  ]
                }
              }
            },
            {
              "ty": "sh",
              "ks": {
                "a": 0,
                "k": {
                  "c": true,
                  "v": [
                    [82.8355, 83.1633],
                    [84.4163, 79.7081],
                    [93.6555, 79.1609],
                    [92.5744, 86.5001],
                    [88.1439, 91.4887],
                    [85.5113, 88.5948]
                  ],
                  "i": [
                    [0.21450000000000102, 1.5508999999999986],
                    [-1.241800000000012, 0.7325000000000017],
                    [-4.34020000000001, -0.7635999999999967],
                    [0.12709999999999866, -2.478499999999997],
                    [1.2310999999999979, -1.5183999999999997],
                    [0.7644999999999982, 1.008499999999998]
                  ],
                  "o": [
                    [-0.18789999999999907, -1.5710000000000122],
                    [1.8192999999999984, -1.1283999999999992],
                    [-0.5936999999999983, 2.4142999999999972],
                    [-1.7224999999999966, 1.8074000000000012],
                    [-0.9904999999999973, -0.9206999999999965],
                    [-1.5694000000000017, -2.0701000000000107]
                  ]
                }
              }
            },
            {
              "ty": "sh",
              "ks": {
                "a": 0,
                "k": {
                  "c": true,
                  "v": [
                    [84.2093, 99.6121],
                    [86.1786, 95.925],
                    [88.6114, 93.015],
                    [91.0386, 94.8109],
                    [93.164, 96.2087],
                    [95.9682, 103.298],
                    [91.5255, 103.971],
                    [87.0969, 103.504],
                    [84.8726, 102.306]
                  ],
                  "i": [
                    [-0.2015999999999991, 0.9468999999999994],
                    [-1.1313999999999993, 1.4846000000000004],
                    [-1.0396999999999963, 1.1644000000000005],
                    [-0.8890999999999991, -0.6214999999999975],
                    [-0.7015999999999991, -0.4292999999999978],
                    [-1.2948999999999984, -1.8179999999999978],
                    [1.4584000000000117, -0.06100000000000705],
                    [1.3008999999999986, 0.3930000000000007],
                    [0.3622000000000014, 0.47800000000000864]
                  ],
                  "o": [
                    [0.18149999999999977, -0.9735000000000014],
                    [0.582099999999997, -0.7755999999999972],
                    [0.7289999999999992, 0.5756999999999977],
                    [0.7152999999999992, 0.5024999999999977],
                    [0.5745000000000005, 2.907900000000012],
                    [-1.5033999999999992, 0.38800000000000523],
                    [-1.6514999999999986, 0.08100000000000307],
                    [-1.1206999999999994, -0.32099999999999795],
                    [-0.6437999999999988, -0.8490000000000038]
                  ]
                }
              }
            },
            {
              "ty": "sh",
              "ks": {
                "a": 0,
                "k": {
                  "c": true,
                  "v": [
                    [89.1675, 92.3427],
                    [91.0154, 90.3149],
                    [92.516, 88.7385],
                    [92.6233, 92.105],
                    [92.9078, 94.9611]
                  ],
                  "i": [
                    [1.1304999999999978, 0.9400000000000119],
                    [-0.6689999999999969, 0.7162000000000006],
                    [-0.47690000000000055, 0.5287000000000006],
                    [-0.10580000000000211, -1.1317999999999984],
                    [-0.1378999999999877, -0.8984999999999985]
                  ],
                  "o": [
                    [0.5628999999999991, -0.6356999999999999],
                    [0.5234999999999985, -0.5223000000000013],
                    [-0.034199999999998454, 1.1124999999999972],
                    [0.05180000000000007, 1.0056000000000012],
                    [-1.3629999999999995, -0.8055999999999983]
                  ]
                }
              }
            },
            {
              "ty": "sh",
              "ks": {
                "a": 0,
                "k": {
                  "c": true,
                  "v": [
                    [95.0082, 97.3182],
                    [98.3837, 98.9594],
                    [102.737, 100.236],
                    [97.2749, 102.872]
                  ],
                  "i": [
                    [0.5501000000000005, 2.0488],
                    [-1.0611999999999995, -0.40749999999999886],
                    [-1.4939999999999998, -0.3721000000000032],
                    [1.821799999999996, -0.6290000000000049]
                  ],
                  "o": [
                    [1.1890999999999963, 0.6865999999999985],
                    [1.4080000000000013, 0.4789999999999992],
                    [-1.8199999999999932, 1.1280000000000001],
                    [-0.9611000000000018, -1.6539999999999964]
                  ]
                }
              }
            },
            {
              "ty": "sh",
              "ks": {
                "a": 0,
                "k": {
                  "c": true,
                  "v": [
                    [98.493, 104.644],
                    [97.9799, 103.967],
                    [104.647, 100.606],
                    [107.497, 101.14],
                    [108.337, 101.256],
                    [104.128, 110.34]
                  ],
                  "i": [
                    [3.4909999999999997, 3.9979999999999905],
                    [0.1811000000000007, 0.23900000000000432],
                    [-2.097999999999999, 1.4230000000000018],
                    [-0.980000000000004, -0.13400000000000034],
                    [-0.28000000000000114, -0.03900000000000148],
                    [2.2819999999999965, -1.730000000000004]
                  ],
                  "o": [
                    [-0.16100000000000136, -0.2120000000000033],
                    [2.3470999999999975, -0.8179999999999978],
                    [0.9199999999999875, 0.22100000000000364],
                    [0.28000000000000114, 0.03900000000000148],
                    [-0.5240000000000009, 4.325999999999993],
                    [-0.26600000000000534, 0.2009999999999934]
                  ]
                }
              }
            },
            {
              "ty": "sh",
              "ks": {
                "a": 0,
                "k": {
                  "c": true,
                  "v": [
                    [118.882, 94.3275],
                    [120.021, 96.16],
                    [120.183, 98.6071],
                    [113.03, 100.582],
                    [110.042, 100.528],
                    [110.075, 95.3621],
                    [110.403, 95.0507],
                    [115.444, 90.2887]
                  ],
                  "i": [
                    [-1.0660000000000025, -1.4065999999999974],
                    [-0.7390000000000043, -1.1950999999999965],
                    [0.5039999999999907, -0.38230000000000075],
                    [3.1500000000000057, -0.08899999999999864],
                    [1.0130000000000052, 0.06799999999999784],
                    [0.0759999999999934, 1.8646999999999991],
                    [-0.13300000000000978, 0.10060000000000002],
                    [-1.3700000000000045, 1.665700000000001]
                  ],
                  "o": [
                    [0.01999999999999602, 0.026499999999998636],
                    [0.6119999999999948, 1.2490999999999985],
                    [-1.619000000000014, 1.2272999999999996],
                    [-0.9789999999999992, 0.03200000000001069],
                    [0.09799999999999898, -1.5793000000000035],
                    [0.08599999999999852, -0.10699999999999932],
                    [1.9909999999999997, -1.5090000000000003],
                    [1.225999999999999, 1.285899999999998]
                  ]
                }
              }
            },
            {
              "ty": "sh",
              "ks": {
                "a": 0,
                "k": {
                  "c": true,
                  "v": [
                    [105.991, 99.6495],
                    [108.607, 97.4779],
                    [108.462, 100.346],
                    [105.672, 99.8909]
                  ],
                  "i": [
                    [-0.10599999999999454, 0.08050000000000068],
                    [-0.6029999999999944, 0.5825999999999993],
                    [0.0759999999999934, -0.8928000000000083],
                    [0.9470000000000027, 0.2021000000000015]
                  ],
                  "o": [
                    [1.1410000000000053, -0.8650999999999982],
                    [-0.021000000000000796, 1.0191999999999979],
                    [-0.9129999999999967, -0.10200000000000387],
                    [0.10600000000000875, -0.08039999999999736]
                  ]
                }
              }
            },
            {
              "ty": "sh",
              "ks": {
                "a": 0,
                "k": {
                  "c": true,
                  "v": [
                    [103.679, 93.1271],
                    [105.214, 90.5214],
                    [104.525, 88.5366],
                    [101.949, 87.0412],
                    [99.4565, 88.0532],
                    [98.0901, 90.4682],
                    [98.7438, 93.2325],
                    [100.327, 94.1635]
                  ],
                  "i": [
                    [-1.1940000000000026, 0.9054000000000002],
                    [0.012000000000000455, 0.9523999999999972],
                    [0.4819999999999993, 0.6369999999999862],
                    [0.992999999999995, 0.041499999999999204],
                    [0.7624999999999886, -0.7032999999999987],
                    [0.15499999999998693, -0.9532999999999987],
                    [-0.6236999999999995, -0.8228000000000009],
                    [-0.6932000000000045, -0.14300000000000068]
                  ],
                  "o": [
                    [1.0349999999999966, -0.7847000000000008],
                    [0.022999999999996135, -0.6861999999999995],
                    [-0.7250000000000085, -0.9554000000000116],
                    [-0.8990000000000009, -0.028599999999997294],
                    [-0.7560000000000002, 0.6567000000000007],
                    [-0.18790000000001328, 1.0200999999999993],
                    [0.3622000000000014, 0.4776999999999987],
                    [1.0400000000000063, 0.2143999999999977]
                  ]
                }
              }
            },
            {
              "ty": "st",
              "o": { "a": 0, "k": 0 },
              "w": { "a": 0, "k": 0 },
              "c": { "a": 0, "k": [0, 0, 0, 0] },
              "lc": 3,
              "lj": 1,
              "ml": 1
            },
            {
              "ty": "fl",
              "o": { "a": 0, "k": 100 },
              "r": 1,
              "c": {
                "a": 0,
                "k": [
                  0.3803921568627451,
                  0.8549019607843137,
                  0.984313725490196,
                  1
                ]
              }
            },
            {
              "ty": "tr",
              "o": { "a": 0, "k": 100 },
              "a": { "a": 0, "k": [0, 0] },
              "s": { "a": 0, "k": [100, 100] },
              "p": { "a": 0, "k": [0, 0] },
              "r": { "a": 0, "k": 0 }
            }
          ]
        },
        {
          "ty": "gr",
          "nm": "19 shape group",
          "it": [
            {
              "ty": "sh",
              "ks": {
                "a": 0,
                "k": {
                  "c": true,
                  "v": [
                    [112.741, 57.8706],
                    [112.944, 57.6612],
                    [92.0072, 62.01],
                    [92.0201, 62.0584],
                    [91.666, 62.6704],
                    [90.6033, 62.9542],
                    [89.9462, 62.8192],
                    [90.1557, 63.022],
                    [82.84, 68.1842],
                    [80.9212, 70.3008],
                    [80.2517, 71.6699],
                    [78.7449, 73.0038],
                    [71.755, 88.6879],
                    [71.0419, 94.1569],
                    [70.9324, 94.1344],
                    [71.4325, 96.5884],
                    [71.3359, 96.6142],
                    [71.8261, 98.4499],
                    [77.0275, 107.463],
                    [87.2565, 116.893],
                    [104.965, 128.362],
                    [107.484, 129.656],
                    [109.5, 130.618],
                    [121.734, 134.959],
                    [121.866, 134.872],
                    [141.672, 131.135],
                    [140.049, 132.034],
                    [141.201, 110.767],
                    [141.723, 109.231],
                    [141.123, 108.925],
                    [140.118, 97.6015],
                    [139.719, 98.4326],
                    [139.41, 99.6018],
                    [139.346, 99.3603],
                    [136.344, 82.3076],
                    [129.608, 68.3224],
                    [113.784, 57.9024],
                    [113.884, 58.0828],
                    [113.897, 58.1311]
                  ],
                  "i": [
                    [0.39700000000000557, 0.06639999999999446],
                    [-0.0660000000000025, 0.07090000000000174],
                    [5.125200000000007, -2.760799999999996],
                    [0.0006000000000057071, -0.018900000000002137],
                    [0.24689999999999657, -0.2383999999999986],
                    [0.4358999999999895, -0.04740000000000322],
                    [0.22109999999999275, 0.03920000000000101],
                    [-0.06359999999999388, -0.05939999999999657],
                    [2.466399999999993, -2.0041999999999973],
                    [0.616100000000003, -0.7021000000000015],
                    [0.21280000000000143, -0.4843000000000046],
                    [0, 0],
                    [0.5264000000000095, -5.025400000000005],
                    [-0.1273000000000053, -1.8979999999999961],
                    [0.037499999999994316, 0.004699999999999704],
                    [-0.06450000000000955, -0.8262999999999892],
                    [0.02980000000000871, -0.007899999999992247],
                    [-0.2038000000000011, -0.6156000000000006],
                    [-2.6099999999999994, -3.442999999999998],
                    [-4.961200000000005, -3.8499999999999943],
                    [-6.017600000000002, -3.1539999999999964],
                    [-0.7989999999999924, -0.40800000000001546],
                    [-0.48399999999999466, -0.33899999999999864],
                    [-4.908000000000001, -1.450000000000017],
                    [-0.03700000000000614, 0.031999999999982265],
                    [-4.936999999999983, 4.251000000000005],
                    [0.5459999999999923, -0.28299999999998704],
                    [0.7900000000000205, 12.003],
                    [-0.1710000000000207, 0.480000000000004],
                    [0.2050000000000125, 0.10999999999999943],
                    [0.3810000000000002, 4.1414999999999935],
                    [0.09800000000001319, -0.4058999999999884],
                    [0.01500000000001478, -0.07299999999999329],
                    [0, 0],
                    [1.554000000000002, 5.17410000000001],
                    [2.8079999999999927, 3.6662999999999926],
                    [7.126999999999995, 2.400599999999997],
                    [-0.01999999999999602, -0.058099999999996044],
                    [0, 0]
                  ],
                  "o": [
                    [0.06900000000000261, -0.06869999999999976],
                    [-8.832999999999998, 0.1383999999999972],
                    [0.00920000000000698, 0.013300000000000978],
                    [0.010800000000003251, 0.16960000000000264],
                    [-0.27259999999999707, 0.14179999999999637],
                    [-0.21690000000000964, -0.0508000000000024],
                    [0.07609999999999673, 0.07569999999999766],
                    [-2.4107999999999947, 1.4373000000000005],
                    [-0.6631, 0.708999999999989],
                    [-0.2335999999999956, 0.42840000000001055],
                    [0, 0],
                    [-4.133499999999998, 5.430700000000002],
                    [-0.6026999999999987, 1.7480000000000047],
                    [-0.03549999999999898, -0.010299999999986653],
                    [0.26890000000000214, 0.8097000000000065],
                    [-0.03459999999999752, 0.0093000000000103],
                    [0.12300000000000466, 0.6082999999999998],
                    [0.857600000000005, 2.565100000000001],
                    [1.8580999999999932, 2.436000000000007],
                    [5.788200000000003, 4.492000000000004],
                    [0.8799999999999955, 0.4550000000000125],
                    [0.8599999999999994, 0.3019999999999925],
                    [3.2480000000000047, 1.4440000000000168],
                    [0.05100000000000193, -0.02600000000001046],
                    [8.26700000000001, 1.759999999999991],
                    [-0.5360000000000014, 0.3160000000000025],
                    [1.5579999999999927, -2.174999999999983],
                    [0.1769999999999925, -0.5439999999999969],
                    [-0.1950000000000216, -0.09399999999999409],
                    [-0.2879999999999825, -3.4069999999999965],
                    [-0.16800000000000637, 0.14820000000000277],
                    [-0.1910000000000025, 0.7064000000000021],
                    [0, 0],
                    [-0.44700000000000273, -6.194400000000002],
                    [-1.6829999999999927, -5.6571],
                    [-3.421999999999997, -4.546100000000003],
                    [0.046999999999997044, 0.062199999999997146],
                    [0, 0],
                    [-0.37400000000000944, -0.10720000000000596]
                  ]
                }
              }
            },
            {
              "ty": "sh",
              "ks": {
                "a": 0,
                "k": {
                  "c": true,
                  "v": [
                    [108.748, 59.1957],
                    [109.775, 59.7493],
                    [110.751, 59.3335],
                    [128.327, 69.3374],
                    [134.405, 82.4113],
                    [137.345, 97.8762],
                    [137.094, 116.315],
                    [137.531, 133.069],
                    [124.31, 133.753],
                    [124.839, 134.181],
                    [105.306, 126.925],
                    [88.3256, 116.245],
                    [78.1352, 106.96],
                    [73.256, 98.3785],
                    [73.388, 98.2915],
                    [72.7658, 96.5429],
                    [72.3495, 94.0148],
                    [73.1995, 93.322],
                    [72.3654, 93.493],
                    [73.735, 86.6066],
                    [73.0104, 86.8001],
                    [72.4791, 86.942],
                    [72.3278, 87.3447],
                    [90.8097, 63.7271],
                    [91.0062, 63.8816],
                    [91.3249, 63.3308],
                    [91.4923, 63.1826],
                    [108.818, 59.0733]
                  ],
                  "i": [
                    [0, 0],
                    [-0.36299999999999955, 0.062400000000003786],
                    [-0.3689999999999998, 0.1676000000000002],
                    [-4.2620000000000005, -5.624100000000006],
                    [-1.608000000000004, -5.5047],
                    [-0.6570000000000107, -5.689700000000002],
                    [0.5330000000000155, -9.113],
                    [-0.7270000000000039, -3.4969999999999857],
                    [4.955999999999989, 0.835000000000008],
                    [-0.1869999999999976, -0.14700000000001978],
                    [5.772000000000006, 3.012999999999991],
                    [5.386500000000012, 4.150999999999996],
                    [1.9074999999999989, 2.4920000000000044],
                    [0.9069999999999965, 2.6214999999999975],
                    [0, 0],
                    [0.19559999999999889, 0.6032999999999902],
                    [0.053999999999987836, 0.8481000000000023],
                    [-0.28759999999999764, 0.21479999999999677],
                    [0.3865000000000123, -0.10320000000000107],
                    [-1.0233999999999952, 2.2399000000000058],
                    [0.3778999999999968, -0.13540000000000418],
                    [0, 0],
                    [0.03860000000000241, -0.11379999999999768],
                    [-10.670600000000007, 8.231599999999993],
                    [-0.0730000000000075, -0.015000000000000568],
                    [-0.07080000000000553, 0.12239999999999895],
                    [-0.05580000000000496, 0.049399999999998556],
                    [-7.0120000000000005, -0.6803000000000026]
                  ],
                  "o": [
                    [0.3219999999999885, 0.4314999999999998],
                    [0.2809999999999917, -0.10960000000000036],
                    [7.454999999999998, 1.0452000000000012],
                    [2.4439999999999884, 3.211199999999991],
                    [1.3029999999999973, 4.620199999999997],
                    [0.36600000000001387, 3.1798],
                    [-0.43600000000000705, 7.671999999999997],
                    [-3.858000000000004, 1.2910000000000252],
                    [0.16599999999999682, 0.13900000000001],
                    [-7.25, -1.8240000000000123],
                    [-5.933899999999994, -2.968999999999994],
                    [-4.886099999999999, -3.6980000000000075],
                    [-2.345799999999997, -3.0999999999999943],
                    [0, 0],
                    [-0.21920000000000073, -0.5625],
                    [-0.22360000000000468, -0.837299999999999],
                    [0.27899999999999636, -0.2469999999999999],
                    [-0.16960000000000264, 0.010800000000003251],
                    [-0.11029999999999518, -2.351099999999988],
                    [-0.10519999999999641, -0.006399999999999295],
                    [0, 0],
                    [-0.06230000000000757, 0.15460000000000207],
                    [1.6507000000000005, -7.513500000000008],
                    [0.057999999999992724, 0.08800000000000097],
                    [0.14170000000000016, -0.2447999999999979],
                    [0.05580000000000496, -0.04940000000000566],
                    [4.537899999999993, -3.4198999999999984],
                    [0, 0]
                  ]
                }
              }
            },
            {
              "ty": "sh",
              "ks": {
                "a": 0,
                "k": {
                  "c": true,
                  "v": [
                    [139.961, 109.805],
                    [139.974, 109.853],
                    [139.751, 115.605],
                    [138.12, 131.204],
                    [138.1, 130.743],
                    [139.042, 115.277],
                    [139.252, 100.368],
                    [139.433, 100.268],
                    [140.058, 109.779]
                  ],
                  "i": [
                    [0.031999999999982265, -0.009000000000000341],
                    [0, 0],
                    [0.11299999999999955, -2.031000000000006],
                    [0.8799999999999955, -7.687000000000012],
                    [0, 0],
                    [-0.4919999999999902, 6.686999999999998],
                    [0.17799999999999727, 4.024000000000001],
                    [-0.06499999999999773, 0.018000000000000682],
                    [-0.025000000000005684, -3.581000000000003]
                  ],
                  "o": [
                    [0, 0],
                    [-0.036000000000001364, 1.804000000000002],
                    [-0.2079999999999984, 2.711999999999989],
                    [0, 0],
                    [0.13700000000000045, -3.6239999999999952],
                    [0.31800000000001205, -5.915000000000006],
                    [0.055999999999983174, -0.04899999999999238],
                    [0.3919999999999959, 2.7590000000000003],
                    [-0.031999999999982265, 0.009000000000000341]
                  ]
                }
              }
            },
            {
              "ty": "sh",
              "ks": {
                "a": 0,
                "k": {
                  "c": true,
                  "v": [
                    [123.927, 133.286],
                    [123.914, 133.238],
                    [123.782, 133.325]
                  ],
                  "i": [
                    [-0.04400000000001114, 0.020000000000010232],
                    [0, 0],
                    [-0.7680000000000007, -0.6189999999999998]
                  ],
                  "o": [
                    [0, 0],
                    [-0.8559999999999945, -0.561000000000007],
                    [0.05200000000000671, -0.006000000000000227]
                  ]
                }
              }
            },
            {
              "ty": "st",
              "o": { "a": 0, "k": 0 },
              "w": { "a": 0, "k": 0 },
              "c": { "a": 0, "k": [0, 0, 0, 0] },
              "lc": 3,
              "lj": 1,
              "ml": 1
            },
            {
              "ty": "fl",
              "o": { "a": 0, "k": 100 },
              "r": 1,
              "c": { "a": 0, "k": [0, 0, 0, 1] }
            },
            {
              "ty": "tr",
              "o": { "a": 0, "k": 100 },
              "a": { "a": 0, "k": [0, 0] },
              "s": { "a": 0, "k": [100, 100] },
              "p": { "a": 0, "k": [0, 0] },
              "r": { "a": 0, "k": 0 }
            }
          ]
        },
        {
          "ty": "gr",
          "nm": "19 shape group",
          "it": [
            {
              "ty": "sh",
              "ks": {
                "a": 0,
                "k": {
                  "c": true,
                  "v": [
                    [73.5503, 83.3956],
                    [73.5794, 83.6984],
                    [70.2558, 93.5388],
                    [74.1941, 100.923],
                    [75.309, 102.384],
                    [74.2855, 104.365],
                    [76.0358, 108.4],
                    [88.5259, 118.158],
                    [100.059, 125.687],
                    [123.496, 135.161],
                    [135.319, 134.281],
                    [135.615, 133.063],
                    [135.237, 131.456],
                    [138.919, 123.538],
                    [137.28, 134.067],
                    [139.274, 88.0459],
                    [139.078, 89.4438],
                    [138.451, 84.3842],
                    [138.242, 83.4052],
                    [136.422, 75.0416],
                    [135.771, 74.5426],
                    [134.657, 73.857],
                    [132.489, 72.5212],
                    [133.35, 85.436],
                    [134.37, 99.9127],
                    [132.077, 118.845],
                    [125.838, 119.321],
                    [105.992, 118.255],
                    [95.3135, 113.344],
                    [94.5565, 113.029],
                    [92.5559, 111.545],
                    [86.0999, 106.748],
                    [80.9229, 103.059],
                    [80.7876, 102.94],
                    [79.7373, 101.719],
                    [77.8476, 95.0306],
                    [76.7143, 87.1048],
                    [75.8896, 86.3418],
                    [75.5868, 86.3709],
                    [75.3551, 96.1619],
                    [73.6488, 88.8032],
                    [74.1914, 84.0524]
                  ],
                  "i": [
                    [0.04720000000000368, -0.08160000000000878],
                    [0, 0],
                    [-0.7934999999999945, -3.617599999999996],
                    [-2.1137000000000086, -2.748100000000008],
                    [-0.3716000000000008, -0.48699999999999477],
                    [-0.04760000000000275, -0.9529999999999887],
                    [-1.1642999999999972, -1.5170000000000101],
                    [-6.997099999999989, -4.756],
                    [-4.076499999999996, -2.6029999999999944],
                    [-11.244, -3.4499999999999886],
                    [-4.799999999999983, 0.38399999999998613],
                    [-0.02600000000001046, 0.4210000000000207],
                    [0.2669999999999959, 0.48100000000002296],
                    [-0.8660000000000139, 3.4750000000000085],
                    [0.9379999999999882, -1.5260000000000105],
                    [5.384999999999991, 23.2641],
                    [0.09600000000000364, -0.5433000000000021],
                    [0.24600000000000932, 1.6939999999999884],
                    [0.021000000000015007, 0.3392000000000053],
                    [0.37999999999999545, 0.5194999999999936],
                    [0.3760000000000048, 0.2447000000000088],
                    [0.4170000000000016, 0.26829999999999643],
                    [0.1629999999999825, 0.09440000000000737],
                    [-0.7390000000000043, -6.254400000000004],
                    [0.08899999999999864, -3.0253000000000014],
                    [1.2789999999999964, -6.965999999999994],
                    [2.5600000000000023, -0.23499999999999943],
                    [5.543999999999997, 1.3830000000000098],
                    [6.444499999999991, 3.075000000000003],
                    [0.23619999999999663, 0.10900000000000887],
                    [0.6873000000000076, 0.5060000000000002],
                    [1.0223000000000013, 0.7269999999999897],
                    [1.5334000000000003, 0.8320000000000078],
                    [0.04940000000000566, 0.05500000000000682],
                    [0.35439999999999827, 0.4230000000000018],
                    [0.4344999999999999, 2.402499999999989],
                    [0.26420000000000243, 0.3434000000000026],
                    [0.1782000000000039, 0.021399999999999864],
                    [0, 0],
                    [-1.562599999999989, -4.6888000000000005],
                    [-0.18369999999998754, 2.6710999999999956],
                    [-0.23560000000000514, 1.4429999999999978]
                  ],
                  "o": [
                    [0, 0],
                    [-3.0093000000000103, 2.9425999999999988],
                    [0.511800000000008, 2.174900000000008],
                    [0.3716000000000008, 0.48699999999999477],
                    [-0.7299000000000007, 0.367999999999995],
                    [0.002600000000001046, 1.1730000000000018],
                    [1.3297000000000025, 1.75],
                    [3.612400000000008, 2.415999999999997],
                    [4.3799999999999955, 2.8659999999999997],
                    [3.082000000000008, -0.20300000000000296],
                    [0.17200000000002547, -0.39100000000001955],
                    [0.014999999999986358, -0.589999999999975],
                    [1.5889999999999986, -1.804000000000002],
                    [-0.15500000000000114, 5.493000000000009],
                    [6.713999999999999, -7.416000000000011],
                    [-0.033999999999991815, 0.3885999999999967],
                    [-0.17199999999999704, -1.6790999999999912],
                    [-0.117999999999995, -0.31340000000000146],
                    [-0.8329999999999984, -5.05619999999999],
                    [-0.057999999999992724, -0.08800000000000807],
                    [-0.3259999999999934, -0.1887999999999863],
                    [-1.2820000000000107, -0.7960999999999956],
                    [-0.16499999999999204, 2.3555000000000064],
                    [0.7690000000000055, 6.625799999999998],
                    [-0.25, 5.655299999999997],
                    [-1.5999999999999943, 0.08200000000000784],
                    [-7.685999999999993, 0.671999999999997],
                    [-0.6740000000000066, -0.19899999999999807],
                    [-0.26839999999999975, -0.10099999999999909],
                    [-0.6463999999999999, -0.4829999999999899],
                    [-3.2817000000000007, -2.4710000000000036],
                    [-1.917900000000003, -1.6270000000000095],
                    [-0.04080000000000439, -0.02400000000000091],
                    [-0.345799999999997, -0.39099999999999113],
                    [-0.8252999999999986, -2.056299999999993],
                    [-0.4912999999999954, -4.940400000000011],
                    [-0.3716000000000008, -0.4872999999999905],
                    [0, 0],
                    [-1.717100000000002, 1.8384999999999962],
                    [-1.3211999999999904, -2.2347000000000037],
                    [0.1261000000000081, -1.7242000000000104],
                    [-0.3802000000000021, -0.5194000000000045]
                  ]
                }
              }
            },
            {
              "ty": "st",
              "o": { "a": 0, "k": 0 },
              "w": { "a": 0, "k": 0 },
              "c": { "a": 0, "k": [0, 0, 0, 0] },
              "lc": 3,
              "lj": 1,
              "ml": 1
            },
            {
              "ty": "fl",
              "o": { "a": 0, "k": 100 },
              "r": 1,
              "c": {
                "a": 0,
                "k": [
                  0.9176470588235294,
                  0.9176470588235294,
                  0.9176470588235294,
                  1
                ]
              }
            },
            {
              "ty": "tr",
              "o": { "a": 0, "k": 100 },
              "a": { "a": 0, "k": [0, 0] },
              "s": { "a": 0, "k": [100, 100] },
              "p": { "a": 0, "k": [0, 0] },
              "r": { "a": 0, "k": 0 }
            }
          ]
        },
        {
          "ty": "gr",
          "nm": "19 shape group",
          "it": [
            {
              "ty": "sh",
              "ks": {
                "a": 0,
                "k": {
                  "c": true,
                  "v": [
                    [126.766, 64.2685],
                    [118.964, 59.4691],
                    [109.877, 57.8072],
                    [91.7267, 61.1534],
                    [85.2979, 51.2262],
                    [81.5377, 46.6412],
                    [76.4386, 44.7943],
                    [72.845, 46.8407],
                    [70.9301, 50.7159],
                    [71.9025, 59.2022],
                    [76.3414, 70.5923],
                    [77.218, 72.3247],
                    [77.5987, 74.1379],
                    [76.9842, 75.9063],
                    [75.9058, 77.488],
                    [72.4112, 86.4944],
                    [72.785, 96.2272],
                    [82.6913, 112.781],
                    [97.7809, 123.553],
                    [114.86, 131.309],
                    [121.218, 133.803],
                    [127.77, 135.469],
                    [135.297, 135.166],
                    [140.835, 130.324],
                    [141.442, 126.591],
                    [141.199, 122.774],
                    [141.327, 110.268],
                    [140.897, 97.8073],
                    [138.282, 88.2073],
                    [134.968, 78.8973],
                    [131.69, 71.0786]
                  ],
                  "i": [
                    [1.8469999999999942, 1.749299999999991],
                    [3.097999999999999, 1.1390999999999991],
                    [3.236000000000004, 0.10190000000000055],
                    [6.996700000000004, -2.351399999999998],
                    [0, 0],
                    [1.1641000000000048, 1.0001999999999995],
                    [1.7349000000000103, -0.22180000000000177],
                    [1.0237999999999943, -1.204899999999995],
                    [0.2914999999999992, -1.4923999999999964],
                    [-1.036200000000008, -3.6218999999999966],
                    [-1.622099999999989, -2.844399999999993],
                    [-0.10099999999999909, -0.24900000000000944],
                    [0.023400000000009413, -0.5583000000000027],
                    [0.3862000000000023, -0.6206999999999994],
                    [0.6480999999999995, -0.9321000000000055],
                    [0.5033999999999992, -3.411999999999992],
                    [-0.7719000000000023, -3.2783999999999907],
                    [-5.150599999999997, -5.076000000000008],
                    [-6.1569999999999965, -3.289999999999992],
                    [-7.652000000000001, -3.2009999999999934],
                    [-1.406000000000006, -0.48699999999999477],
                    [-1.9779999999999944, -0.29999999999998295],
                    [-2.1970000000000027, 0.6899999999999977],
                    [-0.9010000000000105, 2.309999999999974],
                    [0.007000000000005002, 1.447000000000017],
                    [0.17099999999999227, 2.0589999999999975],
                    [-0.23400000000000887, 6.099999999999994],
                    [0.5020000000000095, 3.040700000000001],
                    [1.3409999999999798, 3.988900000000001],
                    [0, 0],
                    [0.9840000000000089, 1.8762000000000114]
                  ],
                  "o": [
                    [-2.1030000000000086, -2.0605000000000047],
                    [-2.8220000000000027, -1.0060000000000002],
                    [-5.102999999999994, -0.12060000000000315],
                    [0, 0],
                    [-1.3426999999999936, -2.0564999999999998],
                    [-1.6646000000000072, -1.4529999999999959],
                    [-1.3718999999999966, 0.159399999999998],
                    [-0.9851000000000028, 1.0911000000000044],
                    [-0.3879000000000019, 2.0356000000000023],
                    [1.3371999999999957, 4.749000000000002],
                    [0.48340000000000316, 0.9059000000000026],
                    [0.27719999999999345, 0.6504999999999939],
                    [-0.023399999999995202, 0.5581999999999994],
                    [-0.07080000000000553, 0.12239999999999895],
                    [-1.8263000000000034, 2.5922999999999945],
                    [-0.5227000000000004, 3.210099999999997],
                    [1.4536000000000087, 5.959800000000001],
                    [3.902699999999996, 3.891999999999996],
                    [3.7351000000000028, 1.9699999999999989],
                    [2.8319999999999936, 1.1750000000000114],
                    [2.390999999999991, 0.8100000000000023],
                    [2.822000000000017, 0.48799999999999955],
                    [2.790999999999997, -0.9170000000000016],
                    [0.41200000000000614, -1.0420000000000016],
                    [0.007999999999981355, -0.48599999999999],
                    [-0.1490000000000009, -2.2369999999999948],
                    [0.2150000000000034, -5.266999999999996],
                    [-0.4019999999999868, -2.4111000000000047],
                    [0, 0],
                    [-1.2019999999999982, -3.336200000000005],
                    [-1.436000000000007, -2.79079999999999]
                  ]
                }
              }
            },
            {
              "ty": "st",
              "o": { "a": 0, "k": 0 },
              "w": { "a": 0, "k": 0 },
              "c": { "a": 0, "k": [0, 0, 0, 0] },
              "lc": 3,
              "lj": 1,
              "ml": 1
            },
            {
              "ty": "fl",
              "o": { "a": 0, "k": 100 },
              "r": 1,
              "c": { "a": 0, "k": [1, 1, 1, 1] }
            },
            {
              "ty": "tr",
              "o": { "a": 0, "k": 100 },
              "a": { "a": 0, "k": [0, 0] },
              "s": { "a": 0, "k": [100, 100] },
              "p": { "a": 0, "k": [0, 0] },
              "r": { "a": 0, "k": 0 }
            }
          ]
        }
      ],
      "op": 50
    },
    {
      "ty": 4,
      "nm": "17",
      "ip": 0,
      "st": 0,
      "ind": 9,
      "hix": 2,
      "ks": {
        "o": {
          "a": 1,
          "k": [
            {
              "t": 0,
              "s": [0],
              "e": [0],
              "i": { "x": [1], "y": [1] },
              "o": { "x": [0], "y": [0] }
            },
            {
              "t": 40,
              "s": [0],
              "e": [100],
              "i": { "x": [1], "y": [1] },
              "o": { "x": [0], "y": [0] }
            },
            {
              "t": 41,
              "s": [100],
              "e": [100],
              "i": { "x": [1], "y": [1] },
              "o": { "x": [0], "y": [0] }
            },
            {
              "t": 45,
              "s": [100],
              "e": [0],
              "i": { "x": [0.515], "y": [0.955] },
              "o": { "x": [0.455], "y": [0.03] }
            },
            { "t": 46 }
          ]
        },
        "or": { "a": 0, "k": [0, 0, 0] },
        "a": { "a": 0, "k": [72.5, 72.5, 0] },
        "p": {
          "s": true,
          "x": { "a": 0, "k": 72.5 },
          "y": { "a": 0, "k": 72.5 }
        },
        "rx": { "a": 0, "k": 0 },
        "ry": { "a": 0, "k": 0 },
        "rz": { "a": 0, "k": 0 },
        "s": { "a": 0, "k": [100, 100, 100] }
      },
      "shapes": [
        {
          "ty": "gr",
          "nm": "17 shape group",
          "it": [
            {
              "ty": "sh",
              "ks": {
                "a": 0,
                "k": {
                  "c": true,
                  "v": [
                    [32.5188, 11.1371],
                    [31.9646, 10.6123],
                    [30.277, 10.4937],
                    [29.899, 7.3343],
                    [28.8031, 4.78065],
                    [27.1922, 3.39953],
                    [25.9039, 3.22606],
                    [23.9941, 3.63254],
                    [22.5131, 5.06305],
                    [21.5506, 6.30337],
                    [21.1361, 9.2086],
                    [21.3815, 10.9026],
                    [21.5975, 11.5177],
                    [21.6331, 12.2327],
                    [21.8428, 13.2117],
                    [22.5295, 15.2019],
                    [23.4479, 16.5092],
                    [25.3906, 18.1639],
                    [25.6258, 18.4634],
                    [26.7083, 19.4163],
                    [26.7824, 19.5],
                    [26.9531, 19.558],
                    [27.2734, 23.6643],
                    [28.5055, 28.6656],
                    [31.8075, 40.2558],
                    [33.7033, 45.8045],
                    [35.927, 49.8682],
                    [37.8156, 53.4522],
                    [39.7879, 56.9621],
                    [42.3495, 60.1594],
                    [45.0302, 63.2214],
                    [49.3094, 69.1685],
                    [53.8172, 75.0029],
                    [65.4856, 83.4274],
                    [68.6974, 85.5713],
                    [69.8186, 86.6692],
                    [70.9977, 87.5963],
                    [72.2861, 87.7698],
                    [72.7883, 87.3252],
                    [72.8268, 86.6939],
                    [71.651, 85.9729],
                    [69.5376, 84.2602],
                    [65.0146, 81.2762],
                    [55.6142, 74.3678],
                    [50.9839, 68.4626],
                    [46.5565, 62.348],
                    [43.4666, 58.7226],
                    [40.5924, 54.936],
                    [39.0422, 52.0379],
                    [37.5274, 49.0786],
                    [35.3037, 45.0148],
                    [33.7626, 40.4065],
                    [32.2242, 34.4519],
                    [28.9757, 19.3801],
                    [29.2397, 19.2061],
                    [29.5068, 18.462],
                    [29.7675, 18.0819],
                    [31.1069, 16.8962],
                    [31.6089, 15.6754],
                    [32.549, 14.5446],
                    [32.8739, 13.6298],
                    [32.8926, 11.7617]
                  ],
                  "i": [
                    [0, 0],
                    [0.12249999999999872, 0.0708000000000002],
                    [0.7900999999999989, -0.14200000000000124],
                    [0.14839999999999876, 0.6848800000000006],
                    [0.5864000000000011, 0.7749200000000007],
                    [0.6185000000000009, 0.24885000000000002],
                    [0.5089000000000006, -0.03238999999999992],
                    [0.5775000000000006, -0.2922199999999999],
                    [0.6266999999999996, -0.7538599999999995],
                    [0, 0],
                    [-0.07779999999999987, -1.3247600000000004],
                    [-0.10099999999999909, -0.24899999999999878],
                    [0, 0],
                    [-0.024399999999999977, -0.17789999999999928],
                    [0, 0],
                    [0, 0],
                    [-0.4038000000000004, -0.4786999999999999],
                    [-0.7909000000000006, -0.47860000000000014],
                    [-0.07610000000000028, -0.10490000000000066],
                    [-0.40800000000000125, -0.23600000000000065],
                    [-0.016199999999997772, -0.0326999999999984],
                    [-0.044299999999999784, -0.010000000000001563],
                    [-0.25679999999999836, -1.4661000000000008],
                    [-0.6084000000000032, -2.1491000000000007],
                    [0, 0],
                    [-0.6274999999999977, -1.3159999999999954],
                    [-1.0634999999999977, -1.7860000000000014],
                    [-0.9433000000000007, -1.8525999999999954],
                    [-0.571399999999997, -0.8479000000000028],
                    [-1.0869, -1.227799999999995],
                    [-1.1857000000000042, -1.3394000000000048],
                    [-2.0773999999999972, -2.9987999999999886],
                    [-1.2586999999999975, -1.3543999999999983],
                    [-5.351700000000008, -2.9869000000000057],
                    [-0.6077999999999975, -0.5966999999999985],
                    [-0.4767999999999972, -0.493700000000004],
                    [-0.3585999999999956, -0.18019999999999925],
                    [-0.4100999999999999, 0.14399999999999125],
                    [-0.11800000000000921, 0.20400000000000773],
                    [0.09239999999999782, 0.21680000000000632],
                    [0.7000000000000028, 0.2960000000000065],
                    [0.9450000000000074, 0.9551000000000016],
                    [2.1861999999999995, 1.2102000000000004],
                    [2.2853000000000065, 2.3567999999999927],
                    [1.7873000000000019, 2.558800000000005],
                    [0.7668999999999997, 0.933799999999998],
                    [0.6679999999999993, 0.8220999999999989],
                    [0.6724000000000032, 1.0970000000000013],
                    [0.610199999999999, 1.2515999999999963],
                    [0.3072000000000017, 0.5045000000000002],
                    [0.41900000000000404, 0.923099999999998],
                    [0.5589999999999975, 2.0932999999999993],
                    [0, 0],
                    [0.43430000000000035, 3.564300000000003],
                    [-0.06319999999999837, 0.06259999999999977],
                    [-0.03389999999999915, 0.3213000000000008],
                    [-0.0852999999999966, 0.14509999999999934],
                    [-0.4029999999999987, 0.6153000000000013],
                    [-0.2521999999999984, 0.6358999999999995],
                    [-0.17660000000000053, 0.30519999999999925],
                    [-0.07499999999999574, 0.3650000000000002],
                    [0.2342000000000013, 0.4895000000000014]
                  ],
                  "o": [
                    [-0.2469999999999999, -0.2790999999999997],
                    [-0.33500000000000085, -0.22109999999999985],
                    [-0.10360000000000014, -1.421380000000001],
                    [-0.14420000000000144, -0.9275199999999995],
                    [-0.4554000000000009, -0.6718999999999999],
                    [-0.3500000000000014, -0.14803999999999995],
                    [-0.6956999999999987, -0.021230000000000082],
                    [-0.36059999999999803, 0.19980999999999982],
                    [0, 0],
                    [-0.35409999999999897, 0.6120599999999996],
                    [0.06259999999999977, 0.8803000000000001],
                    [0, 0],
                    [-0.0006999999999983686, 0.29879999999999995],
                    [0, 0],
                    [0, 0],
                    [0.2085000000000008, 0.39279999999999937],
                    [0.5042000000000009, 0.6245000000000012],
                    [0.08070000000000022, 0.09479999999999933],
                    [0.31359999999999744, 0.39920000000000044],
                    [0.03319999999999723, 0.023099999999999454],
                    [0.06950000000000145, 0.028700000000000614],
                    [-0.04329999999999856, 1.2714999999999996],
                    [0.21300000000000097, 1.1850999999999985],
                    [0, 0],
                    [0.6363999999999983, 2.383099999999999],
                    [0.41900000000000404, 0.9231000000000051],
                    [0.31580000000000297, 0.5366999999999962],
                    [0.7433999999999941, 1.4920000000000044],
                    [0.6208000000000027, 0.9037000000000006],
                    [0.6013999999999982, 0.701900000000002],
                    [0.7753999999999976, 0.9658999999999907],
                    [1.7465000000000046, 2.5352000000000032],
                    [2.427199999999999, 2.629400000000004],
                    [1.5334000000000003, 0.8325999999999993],
                    [0.27060000000000173, 0.2383000000000095],
                    [0.42739999999999156, 0.43789999999999907],
                    [0.44890000000000896, 0.25969999999999516],
                    [0.2167999999999921, -0.09239999999999782],
                    [0.11809999999999832, -0.20399999999999352],
                    [-0.08380000000001075, -0.1846000000000032],
                    [-0.4638999999999953, -0.18670000000000186],
                    [-0.8290999999999968, -0.7790999999999997],
                    [-3.9816000000000003, -2.248800000000003],
                    [-1.2994999999999948, -1.3780000000000001],
                    [-2.1846999999999994, -3.1426000000000016],
                    [-1.3918999999999997, -1.5947999999999993],
                    [-1.243699999999997, -1.427500000000002],
                    [-0.42329999999999757, -0.6805000000000021],
                    [-0.7026000000000039, -1.4684000000000026],
                    [-1.0634999999999977, -1.7861000000000047],
                    [-0.4684000000000026, -0.978900000000003],
                    [0, 0],
                    [-1.7314000000000043, -6.483600000000003],
                    [0.11280000000000001, -0.05339999999999989],
                    [0.14420000000000144, -0.17479999999999762],
                    [0.08840000000000003, -0.10820000000000007],
                    [0.4899000000000022, -0.17520000000000024],
                    [0.0823999999999998, -0.17790000000000106],
                    [0.4502000000000024, -0.44870000000000054],
                    [0.14160000000000394, -0.24490000000000123],
                    [0.24670000000000414, -0.7558999999999987],
                    [0, 0]
                  ]
                }
              }
            },
            {
              "ty": "sh",
              "ks": {
                "a": 0,
                "k": {
                  "c": true,
                  "v": [
                    [30.9025, 12.4484],
                    [30.7062, 13.0701],
                    [30.0464, 14.2813],
                    [29.5957, 14.9192],
                    [29.5408, 14.5198],
                    [29.6114, 13.6212],
                    [29.798, 13.1574],
                    [30.1521, 12.5453],
                    [30.6897, 12.0395]
                  ],
                  "i": [
                    [-0.060199999999998255, -0.2253999999999987],
                    [0, 0],
                    [0, 0],
                    [0, 0],
                    [-0.012800000000002143, 0.2104999999999997],
                    [0, 0],
                    [0, 0],
                    [0, 0],
                    [0, 0]
                  ],
                  "o": [
                    [0, 0],
                    [0, 0],
                    [0, 0],
                    [-0.04940000000000211, -0.05579999999999963],
                    [0, 0],
                    [0, 0],
                    [0, 0],
                    [0, 0],
                    [0.08170000000000144, 0.04720000000000013]
                  ]
                }
              }
            },
            {
              "ty": "sh",
              "ks": {
                "a": 0,
                "k": {
                  "c": true,
                  "v": [
                    [24.5071, 6.13486],
                    [24.6004, 5.90293],
                    [25.4958, 5.76735],
                    [25.2866, 6.34071],
                    [24.3754, 6.99805]
                  ],
                  "i": [
                    [-0.16520000000000223, 0.28562000000000065],
                    [0, 0],
                    [-0.26629999999999754, -0.022560000000000358],
                    [-0.05959999999999965, -0.22303999999999924],
                    [0.17160000000000153, -0.39083999999999985]
                  ],
                  "o": [
                    [0, 0],
                    [0.3307000000000002, -0.11294999999999966],
                    [-0.19899999999999807, 0.15919999999999934],
                    [-0.4359000000000002, 0.04739000000000004],
                    [-0.0774000000000008, -0.28983000000000025]
                  ]
                }
              }
            },
            {
              "ty": "sh",
              "ks": {
                "a": 0,
                "k": {
                  "c": true,
                  "v": [
                    [25.6862, 7.06201],
                    [25.9536, 7.09412],
                    [25.9665, 7.14243],
                    [25.7765, 7.40015],
                    [25.7669, 7.55797],
                    [25.6703, 7.58377],
                    [25.6799, 7.42595],
                    [25.6412, 7.28103]
                  ],
                  "i": [
                    [0, 0],
                    [0, 0],
                    [0, 0],
                    [0, 0],
                    [0, 0],
                    [0, 0],
                    [0, 0],
                    [0, 0]
                  ],
                  "o": [
                    [0, 0],
                    [0, 0],
                    [0, 0],
                    [0, 0],
                    [0, 0],
                    [0, 0],
                    [0, 0],
                    [0, 0]
                  ]
                }
              }
            },
            {
              "ty": "sh",
              "ks": {
                "a": 0,
                "k": {
                  "c": true,
                  "v": [
                    [26.2264, 4.43371],
                    [27.6245, 5.40588],
                    [26.803, 4.84898],
                    [26.2039, 4.54323],
                    [25.1475, 4.46308]
                  ],
                  "i": [
                    [0, 0],
                    [-0.26000000000000156, -0.5860799999999999],
                    [0, 0],
                    [0.0730000000000004, 0.01499999999999968],
                    [0.20400000000000063, 0.11802000000000046]
                  ],
                  "o": [
                    [0.6720999999999968, 0.06204000000000054],
                    [0, 0],
                    [-0.3263999999999996, -0.18883000000000028],
                    [-0.5002999999999993, 0.06458999999999993],
                    [0, 0]
                  ]
                }
              }
            },
            {
              "ty": "sh",
              "ks": {
                "a": 0,
                "k": {
                  "c": true,
                  "v": [
                    [23.1754, 10.8376],
                    [22.9948, 10.1613],
                    [23.0168, 8.49938],
                    [23.3351, 7.17234]
                  ],
                  "i": [
                    [-0.0890999999999984, -1.2626100000000005],
                    [0, 0],
                    [0, 0],
                    [-0.1667000000000023, 0.3918299999999997]
                  ],
                  "o": [
                    [0, 0],
                    [0, 0],
                    [0.04540000000000077, -0.4928600000000003],
                    [-0.19549999999999912, 1.1808999999999994]
                  ]
                }
              }
            },
            {
              "ty": "sh",
              "ks": {
                "a": 0,
                "k": {
                  "c": true,
                  "v": [
                    [26.079, 15.7031],
                    [25.6247, 15.3586],
                    [25.998, 14.4309],
                    [26.1201, 13.7255],
                    [26.3622, 15.2134],
                    [26.3592, 15.7835]
                  ],
                  "i": [
                    [0.07150000000000034, 0.041400000000001214],
                    [0.17950000000000088, 0.1800000000000015],
                    [-0.07610000000000028, 0.4206000000000003],
                    [0, 0],
                    [-0.03240000000000265, -0.5088000000000008],
                    [0, 0]
                  ],
                  "o": [
                    [-0.12340000000000018, -0.04969999999999963],
                    [0.17279999999999873, -0.19789999999999885],
                    [0, 0],
                    [0.12899999999999778, 0.4831000000000003],
                    [0, 0],
                    [-0.11530000000000129, -0.012199999999999989]
                  ]
                }
              }
            },
            {
              "ty": "st",
              "o": { "a": 0, "k": 0 },
              "w": { "a": 0, "k": 0 },
              "c": { "a": 0, "k": [0, 0, 0, 0] },
              "lc": 3,
              "lj": 1,
              "ml": 1
            },
            {
              "ty": "fl",
              "o": { "a": 0, "k": 100 },
              "r": 1,
              "c": { "a": 0, "k": [0, 0, 0, 1] }
            },
            {
              "ty": "tr",
              "o": { "a": 0, "k": 100 },
              "a": { "a": 0, "k": [0, 0] },
              "s": { "a": 0, "k": [100, 100] },
              "p": { "a": 0, "k": [0, 0] },
              "r": { "a": 0, "k": 0 }
            }
          ]
        },
        {
          "ty": "gr",
          "nm": "17 shape group",
          "it": [
            {
              "ty": "sh",
              "ks": {
                "a": 0,
                "k": {
                  "c": true,
                  "v": [
                    [80.8189, 44.9184],
                    [70.4989, 51.8143],
                    [71.0717, 59.5793],
                    [72.1973, 63.9881],
                    [76.5025, 70.808],
                    [77.173, 72.5438],
                    [78.0044, 73.719],
                    [78.7227, 73.8895],
                    [79.225, 73.4448],
                    [78.8058, 72.263],
                    [76.4987, 69.0495],
                    [76.286, 68.6406],
                    [76.1732, 68.4119],
                    [72.4723, 58.429],
                    [75.8173, 45.3742],
                    [83.5199, 50.7695],
                    [87.6547, 58.3077],
                    [89.4305, 61.6631],
                    [90.3813, 63.4793],
                    [91.2156, 64.0845],
                    [92.2523, 62.9279],
                    [86.5643, 53.0616]
                  ],
                  "i": [
                    [0.8354999999999961, 0.6739000000000033],
                    [0.4784999999999968, -6.993400000000001],
                    [-0.5078000000000031, -2.9350000000000023],
                    [-0.3674999999999926, -0.7299000000000007],
                    [-2.2749000000000024, -3.311800000000005],
                    [0, 0],
                    [-0.3264000000000067, -0.18880000000000052],
                    [-0.2663000000000011, 0.03660000000000707],
                    [-0.06869999999999266, 0.2599000000000018],
                    [0.39529999999999177, 0.44650000000000034],
                    [0, 0],
                    [0.06759999999999877, 0.11549999999999727],
